start_hour,center_hour,center_hour_mod,window_label_x,MEANf_z,VARf_z,SKEWf_z,KURTf_z,NBPEAKS_z,LEQf_z,ENRf_z,BGNf_z,SNRf_z,Hf_z,EAS_z,ECU_z,ECV_z,EPS_z,EPS_KURT_z,EPS_SKEW_z,ACI_z,NDSI_z,rBA_z,AnthroEnergy_z,BioEnergy_z,BI_z,ROU_z,ADI_z,AEI_z,LFC_z,MFC_z,HFC_z,ACTspFract_z,ACTspCount_z,ACTspMean_z,EVNspFract_z,EVNspMean_z,EVNspCount_z,TFSD_z,H_Havrda_z,H_Renyi_z,H_pairedShannon_z,H_gamma_z,H_GiniSimpson_z,RAOQ_z,AGI_z,nROI_z,aROI_z,ZCR_z,MEANt_z,VARt_z,SKEWt_z,KURTt_z,LEQt_z,BGNt_z,SNRt_z,MED_z,Ht_z,ACTtFraction_z,ACTtCount_z,ACTtMean_z,EVNtFraction_z,EVNtMean_z,EVNtCount_z,window_label_y
0.0,1.5,1.5,000.0-003.0,0.024974083931928067,-0.023415724575735552,-0.07667181994801793,0.07649693651619204,-0.13101699711178236,0.12628152975968807,0.1123376484205736,0.3659258161014807,0.10568226615706373,0.015067208838324643,0.11045491469500554,0.3012354951105608,0.15242131894632618,-0.10631809431963318,0.03805559480913813,-0.024024289841892085,-0.001404573912001493,0.07154578532051596,-0.00016183949722206107,0.02075064000349564,0.002484456986768187,-0.03739356546767002,0.002505882056686501,-0.04105457058753891,-0.059162169723977726,-0.008427638094960612,0.09111390863771869,-0.08261303299073039,-0.06378465220221924,-0.04982789808020001,0.09676914775611119,-0.06440748053432857,-0.058141921080817574,-0.06938943966662793,-0.05009333354333592,0.08203026723157544,-0.08768857880021932,0.014829293502351985,-0.031538711705814126,0.11364237991356954,-0.0006414403078953794,0.010136327200160325,-0.1456059041049227,0.0005719867477191628,-0.06299175603676642,-0.0063205856861270945,0.007864582671291614,-0.006612375545654797,0.014235564958870787,0.12251774077375947,0.32962252714056167,0.04471334800669103,0.06781234393899425,-0.12717064672239536,-0.05428562115794349,-0.11113525061163008,0.12373539966776193,-0.05029300041816479,-0.013035499578930935,-0.020260049395507528,000.0-003.0
0.5,2.0,2.0,000.5-003.5,0.02130499883554097,0.016087614576988585,-0.04927340141212561,0.07823496642688098,-0.14637282237638036,0.1162922047124484,0.12431050625397118,0.35949996572688814,0.10064583688222745,-0.013491943590076569,0.1286084758131967,0.3474907951090606,0.18285652160850052,-0.13395296338954749,0.017080328112164957,0.0044450183288594226,-0.006993180279623318,0.03391569671036831,-0.028917664699045036,-0.010380537876863407,0.0004784920237052767,-0.05397566616764258,0.02473148286122037,-0.06772089800526299,-0.08796672288754004,-0.0012181169632551087,0.10986189812037193,-0.07780282488210084,-0.04534225995481423,-0.031068046994233274,0.08146806109761785,-0.03305688006631238,-0.0672121822230108,-0.03127716287803499,-0.014990651199743504,0.07210340000702847,-0.03804733246761891,-0.008476336584927842,-0.060836263407967515,0.12443231315900818,-0.03453712080578921,0.011419575092420442,-0.09232995011978028,-0.015328837532688386,-0.09351545665075575,-0.022999809978562182,0.03120170335954424,-0.019866295487547828,0.007801153937386752,0.12333057065797738,0.2974990150404906,0.03378729542827501,0.05322292187439712,-0.1316288728542529,-0.08233947788442529,-0.09101883889879277,0.15051159285322172,-0.06131563020125794,0.010204620619767218,-0.02080228784850126,000.5-003.5
1.0,2.5,2.5,001.0-004.0,0.01786644610040174,0.030734990817020424,-0.049371812037468765,0.10386750431520671,-0.13579078710868567,0.06171897500775359,0.06356741426860803,0.30617152738173126,0.08714148731060138,0.0009777141123939836,0.08023386267062785,0.41968280300986116,0.2085292582522883,-0.19066840715979524,0.028986851568793603,-0.034377713039438665,0.033684198688978914,0.04054638209665069,-0.0037570405165891995,3.964593682975887e-05,-0.012542137505088695,-0.07214778913274293,0.011092704513416625,-0.05559552928890436,-0.04192249323994005,-0.0028580952231158263,0.09234239721384367,-0.04620427015936473,-0.019572456570938493,0.00830546839268768,0.07623876360080198,-0.027518683220976708,-0.07420536424362717,-0.022201800991690803,-0.025851255658107922,0.08831746438656882,-0.019348218047980138,0.01392481761099906,-0.0746435337974987,0.11884781034176614,-0.0487800050569928,0.0024191917723396105,-0.04970279373729459,-0.0026046227834560487,-0.11948088148334195,0.007333924322520557,0.0007292047131747211,-0.0215051834642382,-0.00023373974117482654,0.07691920702285829,0.3018731430144906,0.038648296862425005,0.04946180179568541,-0.1599759415737116,-0.07144521752920192,-0.0651955947158481,0.15939925311602998,-0.07344163995302444,0.017186690564354245,0.005332347373932688,001.0-004.0
1.5,3.0,3.0,001.5-004.5,-0.004095830294106223,0.01060609054784307,-0.1058473082759091,0.007643863817190798,-0.11684351582627014,0.08978938582026394,0.09409823427209908,0.2910972105024193,0.06914038715850483,0.055236566863556914,0.12303935376291436,0.41307516269704814,0.22289723576447287,-0.22233170690571885,0.004450576003024919,-0.06873671020776596,0.016773085065852268,-0.005196439446496202,-0.01699992997899261,-0.0015365835087279575,0.008349894918424557,-0.06438039004385687,0.00775868906358734,-0.049971356747546825,-0.0476283448379859,-0.017295763131438085,0.08334263460285349,-0.030341710441857635,0.030482751160154198,0.04006113376161487,0.12006797196073113,0.0281089894103894,-0.041968906083106675,0.04185382442122325,-0.025040833034232494,0.06503527915601255,0.006814843638309895,0.033450999696593695,-0.05919481222617977,0.11839272270117508,-0.021593400933881946,0.023913045343641283,0.0257073730472113,0.020599720320403674,-0.06863608246679119,-0.03081217771434718,0.003356820583432053,-0.02491032086529187,-0.009112109826786714,0.0956868486894855,0.22975985026267134,0.06297575220597226,0.02375498157988892,-0.15502329891788644,-0.08973225804434734,-0.07941276235105894,0.21390453296272963,-0.04756204227843732,-0.012301645036899792,0.009129474054717151,001.5-004.5
2.0,3.5,3.5,002.0-005.0,0.027590369719451915,-0.00560175109884403,0.016579300027970315,0.135568630754532,-0.058863347542644946,0.030661098573046226,0.05488178236273138,0.2123671248444733,0.06365710847380125,0.10696840591374558,0.1306467283977439,0.4277394198498443,0.247533997073434,-0.13108560876950592,-0.05892775384052153,-0.16254976384516126,0.014229766640464884,-0.04832177521513611,-0.0023324095154677992,0.0028560809935800364,-0.0010991154238731537,-0.0705161057150684,-0.002193960012749613,-0.1708949503677461,-0.1438301954927038,0.013062886281471618,0.013313987401422417,0.028163451177290078,0.04273029361188225,0.04949761798703953,0.07316889440023606,-0.00935769056371135,-0.05958259737681521,0.007284732762375073,0.02058418624172491,0.0947968082227637,0.07465870157016902,0.13509088631974528,-0.06579702357259408,0.17512623791302476,-0.0640241326565376,-0.021987846178087023,0.00098110555313402,-0.031884068288439954,-0.05907141884764674,-0.002837130238010857,-0.013817806570894828,-0.024994173904595195,-0.011606185046184225,0.055170453767763555,0.2186769726453577,0.07062885972440605,0.038443185397868826,-0.1601739527282983,-0.09125989111226578,-0.09875787490225367,0.1727089999322465,-0.1004185811350141,0.006687250792604081,-0.034550683296534136,002.0-005.0
2.5,4.0,4.0,002.5-005.5,-0.001616230329185926,-0.024747512467831533,0.12392915331764068,0.15630262132952852,0.008046675178486902,0.026880579307125826,0.02188564430987205,0.175444818905462,0.06662527971276248,0.1464983521762086,0.12267424977633459,0.4224800853967738,0.23869180784169527,-0.09757336838790447,-0.10811697861654787,-0.14925591118030615,-0.006437113692071862,-0.19258155647238315,0.010566469429573235,-0.0028397681870024312,-0.020545370889708946,-0.2129229131389751,-0.008338430633172831,-0.1608786297317013,-0.07334129194129745,-0.08216909685025303,-0.09600782337364842,0.015155642477384806,0.03139894201008124,0.029158495265286525,0.08747129068570067,0.0034493761359563977,-0.02600113057339839,0.04520499484198077,0.055624160626380086,0.01798198203815437,0.1792184136078732,0.16815085603901536,-0.08675324084284876,0.15634114258379989,-0.08779324396760359,0.0066597600664850915,0.049922092257133115,-0.08849660975803662,-0.09532808936148324,-0.02142524174421872,-0.004942216733876287,-0.01692168069496169,-0.008885837311467502,0.00113676633695481,0.1396683613402064,0.04902928963011131,0.009737904227626801,-0.13735951173320401,-0.06306451051462068,-0.0892791004606865,0.13135265409654537,-0.036037825195608324,0.02146621870207626,-0.02392705017161317,002.5-005.5
3.0,4.5,4.5,003.0-006.0,6.076733675549825e-05,0.016596616798736388,0.14682506343551138,0.1211829542323139,0.0625354154879961,0.03728342903928775,0.03616957866929441,0.16790456790316696,0.031776096504794064,0.23874482225778146,0.08385056472898665,0.3522870589526365,0.1840473128289088,0.12777568805094722,-0.10233714416470319,-0.1723876833356252,0.012749411979764473,-0.26659484774258807,-0.0006352169035394185,-0.006865861215854133,-0.014403176301427286,-0.14163083388576952,-0.005811116457541768,-0.2041616577265822,-0.04577931043713186,-0.039849237907071386,-0.11799975415186244,-0.0028006400933754693,-0.0047558212712552565,0.012090515507305392,0.08739134757562304,0.0013768089164838493,-0.013123207211780495,0.022031230889422746,0.016458650642917405,-0.028439278414998177,0.19566761399124386,0.21344096852141653,-0.07408332519917529,0.11503381516771187,-0.07261527355841566,-0.017679666299903484,0.05950054918186934,-0.0846693825224751,-0.11549851988095854,-0.02941075105953113,-0.01302542679171459,-0.024490374335791223,-0.011817685083415614,0.05091840686160605,0.08940419160892529,0.05324205146863051,0.028392886852362475,-0.14285754267413464,-0.0632927161304945,-0.06885702996757766,0.13155448202480036,-0.023084540189403664,0.01801783204638561,-0.010377799206030706,003.0-006.0
3.5,5.0,5.0,003.5-006.5,-0.0030130018788890574,-0.00527320968448996,0.1850870549512679,0.10940237045173884,0.041576468268759395,-0.04225210389542511,-0.0418034290215388,0.07974308401351937,-0.02354404752966949,0.25390778523409185,0.02494171824800488,0.30972833073315253,0.1868532424603741,0.2737150018556186,-0.08388052263168697,-0.13020936930159338,0.010904451801383188,-0.2110532807702656,0.013366990783588646,0.017924859036826352,0.01354451669809088,-0.044059435329147405,0.00012273759263499787,-0.21732181748585547,-0.04826541077916971,-0.028197677793795763,-0.11317984705007934,-0.0045387064506092955,-0.01913257934885226,-0.016598380244558435,0.039929921512768016,-0.025980724322915462,0.016531843736003516,-0.009068869591010874,-0.019568780111198177,-0.04316171425679871,0.20394860026867612,0.25826309876408826,-0.06156650580849197,0.12301392301479773,-0.10414132273124722,0.007502028673495257,0.08650342964313493,-0.0892836031620011,-0.07452623678304461,-0.0010126063651866174,0.017732852088966175,-0.040789539127626555,-0.004425653657938139,-0.03650793575228617,0.02947237154347897,0.004762452944580261,-0.0015747701022636724,-0.17918783159129775,-0.03829309503942286,-0.05658386724227489,0.09521895034619458,-0.0013997669800955034,0.014738220307329509,-0.00031112432643004654,003.5-006.5
4.0,5.5,5.5,004.0-007.0,0.012776723429191417,-0.005863764608535202,0.18878022222062313,0.14626041290053193,0.08695742200644697,-0.05151203382288209,-0.07810363646660409,0.0795428035760989,-0.09439774841207973,0.2435338048546839,-0.056355928227252744,0.1794226212197533,0.14863210710752484,0.15213477536958836,-0.06636121189041587,-0.13684737862259178,-8.934433246109476e-05,-0.12631506364167816,-0.008008169366631901,-0.013065275907315032,-0.02091572735188344,0.0801958423367672,-0.01855923687063849,-0.3158106960204569,-0.02248018991994173,-0.00945910292549214,-0.14569954500113902,0.017945810065034602,-0.02455688573364578,0.005931954793669416,-0.029882391358393424,-0.04732808924711418,-0.002309449195667002,-0.008478143355407801,-0.030106998309905205,-0.0497016906808782,0.19878184362840562,0.2702652457635196,-0.07645756013753666,0.12543499708744876,-0.06570401711895266,0.007117948532702503,0.024534263132230408,-0.06424667153498496,0.00037500465207965147,-0.030158537196661877,-0.002371701465372507,-0.050554927850984296,-0.005625751057746214,-0.05427054241912616,-0.0004794883396157019,-0.023302862002443282,0.018956892342646144,-0.1880916472740203,0.028760900020766676,0.011144879227574485,0.03822501931067283,-0.008338652207391337,-0.006086223912068076,-0.015982395346262276,004.0-007.0
4.5,6.0,6.0,004.5-007.5,0.005498700620767793,-0.01772096937974515,0.11483156328434041,0.12894094840083106,0.10664114176283561,-0.07037361322635269,-0.0560192635752104,0.007581262300889985,-0.13734391372161803,0.19678777457743238,-0.08400212847574623,0.05975980063674848,0.03739520358956922,0.012949327743643593,-0.10439889504574228,-0.16943057402581185,0.015557281664224022,0.014085713847444762,-0.009365801649643011,-0.02569055650267781,-0.02828138997394043,0.1072964896260279,-0.008176211440327498,-0.34688912739350514,-0.01710433761943932,0.02024925850222169,-0.1159422989517537,0.04349759289162549,-0.007417406233408445,-0.015242016086291972,-0.12680648231873476,-0.01944141557736639,0.0010066142431739492,-0.0096338301444459,0.08951975698063012,-0.028259227435610844,0.09629670410667668,0.19265536889565155,-0.04686176786879448,0.1015080808901758,-0.027568717865829692,-0.003780309209188572,0.07144350114111452,-0.006160707061424555,0.04245274354399184,-0.01823477312710532,-0.017340889325147744,-0.05127980221647042,-0.009224659988414905,-0.08170489278548085,-0.01734470094055763,-0.024882115128939328,0.00207177050837947,-0.22680148067916892,0.1793134079795625,0.14319135080362705,-0.0633649848737179,0.08108471459149318,0.026477099813233287,-0.024333296716828164,004.5-007.5
5.0,6.5,6.5,005.0-008.0,-0.011350161139054215,0.0026175329194610296,0.11114147597036209,0.10801006020220048,0.06284890115359405,-0.058525047280318127,-0.046788289127844856,-0.07119534587907399,-0.09932837918509047,0.2236003090709737,-0.21966030119648758,-0.05816457084084226,0.015883367147997807,-0.06842932537673128,-0.15344044287696593,-0.19122289792146968,-0.008940411201489768,0.10423929351058576,-0.009881601361795677,0.0120216837439671,-0.032432359084126346,0.12470174531264594,-0.0005873371943106669,-0.2119311764191935,-0.06232799587579608,0.011410460866766649,-0.09999743367105964,0.052913550092950096,0.018080084422485387,-0.0014292909495222377,-0.24276719026144272,0.01824630607336038,-0.01888508175428465,0.027716552422654805,0.15011302904940338,-0.010125948163215841,0.13609489496155822,0.2063122095221965,-0.03466031509463784,0.10495243660577237,0.10524317454536872,0.02147871290231103,0.06940669124368484,0.08677233083489196,0.06082592678125365,-0.022973390078180795,-0.015196910059002557,-0.016256992771530244,-0.0025764410286498135,-0.044629467317628436,-0.07681931571414997,-0.08876401759634643,0.001372326399693794,-0.18174968683089082,0.06712553682097913,0.05895783433188563,-0.09661885514225857,0.013644879937722012,0.013652673857964688,-0.007760670331545764,005.0-008.0
5.5,7.0,7.0,005.5-008.5,0.0007991223381046998,0.007914632472927936,0.08820316038991406,0.0758442661038374,0.029452497701479816,-0.06940141840009356,-0.04218101314807599,-0.08971501774842741,-0.06930495486892743,0.20556531924437657,-0.2375543910469917,-0.08997323722971774,-0.057628682430978385,-0.05477216472463626,-0.1261155479104685,-0.20255690890519998,-0.024284825183609925,0.3411244304061226,0.001679814832305579,0.0019841730096921304,-0.020683556107902835,0.07515441256609129,-0.003645717928680272,-0.14021008675697982,-0.038908117138717994,-0.006341751276234551,-0.02185721777033333,0.04358546597863353,0.036706573571903545,0.052720494108301236,-0.23619332581981414,0.04605872346534608,-0.01488544460429848,0.07617393854282126,0.15569591341907715,0.0179475046815219,0.10427735360520027,0.15556709604988128,-0.05296110237160835,0.11204674031002523,0.11133615858432529,0.00843720085897899,0.10121019395065593,0.17889862135605294,0.16577850423493246,-0.009769329776736389,-0.006957120463140632,-0.03127974160546495,0.0045264950333352835,-0.028399189394197905,-0.08852989817847506,-0.03770136491182362,-0.01740772683101168,-0.15617816560866704,0.05251983520997774,0.0644464974782411,-0.08489337164190232,-0.01983911127479008,0.004009516006034693,0.007034896467735161,005.5-008.5
6.0,7.5,7.5,006.0-009.0,-0.006483638203608518,-0.002270181546990098,0.06396364244412896,0.09929533423870215,-0.005755062627156834,-0.06558754412767823,-0.055831388245369755,-0.10944220493314724,-0.02919585418857867,0.15138278476681638,-0.224526814989408,-0.06579694874980571,-0.07009431498570796,-0.07138844416581744,-0.11017724568478372,-0.14921905139546635,6.515626800454103e-05,0.4456163910983773,0.006901459516897584,0.01155759303573564,0.026527545361923487,0.0685593422278148,-0.015401963536882392,-0.08884210606516549,-0.006646074166718283,-0.012320294373398596,-0.0444273678289201,0.0414290425658971,0.0300466758911636,0.03948140696720455,-0.23861699271746545,0.034412125354350204,0.020065466841656877,0.02792767168336049,0.11382923081008088,0.0041041909676176516,0.0768508030628665,0.17130970608990065,-0.046729302840311716,0.08799193592225622,0.14440270452207632,-0.00036349754398564137,0.07557980170039326,0.163443875784741,0.2147308153294459,-0.004041273551647892,-0.000724959163597295,0.01349892656537441,0.0045113626622064465,-0.05162372194460764,-0.09575184170102578,-0.06299564697389157,-0.0030684740860120897,-0.1433241334972863,0.04438856097066328,0.02347493275050995,-0.05302212939118168,-0.02092931480505508,-0.0016339725942428255,-0.007000387053838218,006.0-009.0
6.5,8.0,8.0,006.5-009.5,-0.024339651850318198,-0.025519496160683382,0.050312968177320165,0.044700834376068456,0.030066010029524425,-0.02885476417152293,-0.03240773431357,-0.06784462971257428,-0.04573415446573129,0.15635992033194385,-0.2496765477172557,-0.08180115690544972,-0.08225577216422032,-0.06905641955292098,-0.13256628501218784,-0.1407214307203907,-0.017429647150118376,0.5319636882740374,-0.0054461986942879,0.004950707660000832,0.004847948557000686,0.10518766480654976,-0.006384206092652151,-0.08753743074037851,-0.016903586265068226,-0.011099732236193812,-0.07028389545725713,0.02163697269177304,0.026516073101003106,0.015575266139782268,-0.1955947525188631,0.039053121735855255,-0.017243056612559902,0.0043090442061541525,0.07974626035568179,0.0032893569671292476,0.06924771577107473,0.16055177604481044,-0.022752144097670617,0.06665855339668082,0.15647927586752428,0.04695676270151454,0.07544196419732253,0.18233312113184247,0.20737568314584157,-0.013571701288839739,-0.02013871872544781,-0.019826632404204493,0.011683234185274104,-0.029174447108570242,-0.06672916173987711,-0.05263518867123018,-0.005377245199958778,-0.16146752115170632,0.033148888358877554,0.02221078396615622,-0.06866028942260508,-0.00634620459499342,0.027903119769195867,0.019335423473368692,006.5-009.5
7.0,8.5,8.5,007.0-010.0,0.0031011363217336775,-0.01660370753296021,0.0702164244337106,0.08406161391207699,-0.0027215385836005888,-0.047438416503981035,-0.049903121000679694,-0.07363905111087171,-0.026911736564680686,0.13585648647194518,-0.21677730756880548,-0.06654029672898674,-0.06626316832473474,-0.048804889863392834,-0.10072431402349023,-0.14751591144623138,0.007872636795170597,0.5109693311917213,-0.00922419306359761,-0.0036897448383568163,-0.011062718884190038,0.06663405724065388,-0.008683973424383136,-0.07566994777435121,-0.0013380623666957839,-0.06557420437603532,-0.06624773551475747,0.014524473296151065,-0.0022753960003977186,-0.011460574590105474,-0.21214061659133696,0.04258542944902705,-0.010418442615657697,0.023103097618224214,0.02521691638983697,0.005986602251977304,0.07833474931113114,0.17373663142455062,-0.02853458293638088,0.05277686753586545,0.15597902942343228,-0.007361442552402142,0.058661036941084016,0.20091470782821083,0.2805965875969952,-0.007506998641428725,0.0040157309464551125,-0.01732339566056841,-0.01855557849113909,-0.05506288310310336,-0.0793690245691154,-0.043188366770815285,-0.0033912336716893088,-0.10722249568807783,0.03592660839951756,0.018215872499601233,-0.07447185543263958,-0.028134330078248903,0.02169315120157642,-0.01615458616508295,007.0-010.0
7.5,9.0,9.0,007.5-010.5,0.007030392083033856,-0.001971858553152417,0.05565695807538425,0.03906124486288938,-0.01863144223763165,-0.04060307283450303,-0.044448923920403415,-0.06010574471489256,-0.016561032798102934,0.1858419858940425,-0.2025396981386027,-0.07508627377222377,-0.1066516452492733,-0.0215848214539101,-0.10919280974629661,-0.1410133200642152,-0.005906461033863234,0.5295032797286717,-0.029105878463292444,-0.0006335734050624422,-0.003623859149661563,0.0948701865926223,-0.017069249699761584,-0.10943913492566754,-0.072376796142784,-0.06636239091873292,-0.08919197947696221,0.0008057230795043038,0.010079585120545997,0.00014904121644829054,-0.20049406362153774,0.04366597609840601,-0.01584790073335777,0.004786092170125386,-0.011277747982338411,0.012064864217897363,0.04099368176984742,0.15390883560434257,0.004259232353782322,0.052753344773843316,0.2174578465069891,0.015735763294006586,0.06533196217417044,0.17932347987533342,0.26860594049379666,0.00441765644552136,-0.0105937315920873,-0.0018255566399161978,-0.008320393080606796,-0.0743942733617628,-0.08042946781858618,-0.04657584678643299,-0.003996372423815789,-0.16528854157706346,0.04938729595546943,0.01073932119860472,-0.05923585806816216,0.01836682020919045,0.0023556359428544916,-0.004127256514365732,007.5-010.5
8.0,9.5,9.5,008.0-011.0,-0.008782416841761008,0.003428625074480051,0.07410162093112696,0.04915186902969341,0.006489186503349812,-0.052445189336896986,-0.04931178625390207,-0.05254885003571222,-0.029011066051515814,0.1571346562879453,-0.1768314690585895,-0.05688016007137822,-0.027295061639742456,-0.02523117359367124,-0.13653640537298617,-0.12361583437224452,-0.024301424119512544,0.529805474925078,-0.0020955281263462864,-0.01555423784019107,-0.022709283985152668,0.08950272020006715,-0.011791221710003104,-0.082042845581928,-0.02153106098206219,-0.06200510262583055,-0.12025204692921686,-0.002702640941867962,0.00283953305739027,-0.009573422239254892,-0.1719103175788831,0.056633669499522206,0.017970874636723384,0.01315311610080034,-0.011803497885860947,-0.03349814033616076,0.060054138334457184,0.17261868835529012,-0.011914613959434684,0.05118241899703786,0.23135938115222873,-0.007589348979799236,0.07122021082377171,0.22449126256890867,0.22628232825652556,-0.019361383234635002,-0.024565773853342566,-0.034834086871234654,-0.009988412788798397,-0.043953129157366426,-0.06554883457395569,-0.062324009760448155,0.0056705489794447285,-0.12435177325391368,0.024423082963459478,0.04678344254866567,-0.06378460292701751,0.0164487822733857,-0.0028423460578208604,-0.017546130379506537,008.0-011.0
8.5,10.0,10.0,008.5-011.5,0.003777105236812428,0.012883301058321684,0.031553040518991333,0.028614435394792415,-0.003440962701997204,-0.02050184206644786,-0.006888081613926161,-0.06084154249328912,-0.01983682929224862,0.11760888980089937,-0.13670883359725364,-0.09961042011255931,-0.08295442786594782,-0.034060924283901305,-0.13452571353468593,-0.15035952054598659,-0.015707958914114025,0.5453410714072728,-0.020466321779023702,-0.022260840602353258,-0.019772841885559497,0.11234300088393599,-0.003588437377171283,-0.03455352068434905,-0.01820244198485663,-0.10959949577755333,-0.11179535361009872,0.001968009069065114,-0.0020811446253025745,0.006105093482777083,-0.13684297180212673,0.08219393574539084,-0.014101932298200946,0.016924709081489672,-0.023913906753230345,0.005941514307241172,0.02208580872277382,0.1197949336225682,0.023165316617705288,0.027707913853659664,0.26414829066403245,0.027386613685232965,0.06525914717197848,0.23174843603660783,0.28043326895421244,-0.021599058521678562,0.02102242277012784,-0.019372570392260223,-0.0007563261868373056,-0.027882618196330422,-0.06500495101426988,-0.0385936065519609,0.001969637372006149,-0.12443938045022819,0.016411727155501262,0.045343165090007166,-0.04787735382370025,-0.015240464172807925,0.00034060635723322984,-0.0029164478290903653,008.5-011.5
9.0,10.5,10.5,009.0-012.0,0.010709215930229733,-0.005624786028483443,0.059268556229675855,0.06024118029146812,0.00653010003259413,-0.03807471951703451,-0.04341315386696463,-0.02842843896563362,-0.0018806961339406906,0.10994720015024056,-0.12743387394125044,-0.11627544247906486,-0.13052789424706646,-0.007194435302467586,-0.12186951925456518,-0.1448957923405354,-0.0073417058266220985,0.4824897844054593,0.0006815419115053946,0.012215618677907767,-0.03953776636598238,0.10912211879694281,-0.02213618712148426,-0.037476164563960995,-0.04471517109723097,-0.11535198155776326,-0.13361020180294134,-0.004327820404826871,-0.013446066009585518,-0.015793341371840335,-0.09786949745275438,0.06570971519506678,0.02882265520413442,0.017554444431562892,-0.014516597361012013,-0.008494757943999932,0.06343691148870303,0.09436528059129427,0.035466737643770584,0.05133065009171649,0.3158339904815986,0.005383863794220739,0.050042387025027744,0.2614700089222968,0.24816102149038569,-0.013280654136559805,-0.011461957898500076,-0.029661213442991285,0.004505767699108279,-0.021799670955249074,-0.08432187894937278,-0.06935269409953017,0.014033418658504276,-0.132804941106441,0.03809061293616708,0.016077013599108642,-0.05845695105327028,0.02218958887388226,-0.01894170344972056,0.001625077799506984,009.0-012.0
9.5,11.0,11.0,009.5-012.5,0.00779024780523278,-0.027522923504700425,0.07847596709420092,0.060262719402212575,-0.01576016612072521,0.0025784980409305287,-0.01808072278839166,-0.025597929951648935,-0.006014050190377997,0.16031777975266245,-0.1334773872309072,-0.1442513257539864,-0.09889295972090087,-0.009533164539462543,-0.1538676167215725,-0.18393794094477853,-0.004693285579096553,0.46000051875370374,-0.023138085769975513,-0.017773245567855585,-0.014152900474650855,0.10409314524918546,-0.0004833768201221561,-0.04353761517919343,-0.08418588368838854,-0.13895794764913907,-0.15457574594551932,-0.012242993134565028,-0.049054012156924724,-0.006192522079317263,-0.09797572017863847,0.0784697456991971,0.011126148758045932,-0.008279897062226736,-0.0530800371393464,0.009752847815032798,0.1090806692341423,0.1674712766699825,0.012295280573863754,0.05061311946200729,0.377989164907052,0.012323908499576824,0.056914549438522116,0.18455215509549724,0.2625410951692852,-0.0009487622715177996,-0.008704916886783317,-0.002123572248894086,-0.03535848664065667,0.015052469296940152,-0.05579792365629118,-0.011151879071649955,-0.016633944068956914,-0.11556078170009353,0.04417489335141702,0.021549906846531686,-0.06937484491277034,0.03422124642273987,-0.0019650953117519208,0.010921393260322931,009.5-012.5
10.0,11.5,11.5,010.0-013.0,-0.010679640416286674,-0.006488939740274401,0.08396041333369321,0.07875481815532133,-0.0007025651875376728,-0.014228478423729641,-0.0367002984204069,-0.018264803967307404,-0.015699756266942734,0.1596023279046161,-0.1426863921672328,-0.15948182967234545,-0.1251086860623011,-0.06097862694081143,-0.1440687753257561,-0.1909500670913644,-0.021543994494198828,0.4294409169591797,-0.002318548926406695,-0.027446675683253964,-0.020329024812512694,0.07512353686955825,-0.019996343372072314,-0.010149968999009195,-0.055806492602480294,-0.1317188785550583,-0.1409526938935754,-0.03626863203708038,-0.06690800107534388,-0.07480989538571362,-0.11904659276773662,0.05865679850555179,0.016292369259051063,-0.00989274543183174,-0.04326734365475433,0.010699873728494467,0.11139206531263873,0.1499088133890195,0.00817131552108648,0.06776506728734609,0.35644720769054977,0.020294682972556374,0.08936374434026914,0.17153637973881725,0.24066032094144454,0.014287983489599945,0.006756284923943806,-0.023482481235375947,-0.0230526644103802,0.001533142758123346,-0.04388628758790111,-0.07268485736312616,-0.006474813273689183,-0.10168306226422782,0.0457447568232952,0.04598007463873134,-0.06617622227775188,0.03681762878773067,0.0022389394813102743,0.028939821652565922,010.0-013.0
10.5,12.0,12.0,010.5-013.5,-0.0014934216323420756,-0.005745142166184077,0.10029499823608758,0.08154281437163631,-0.019045642910115557,-0.00702061516991746,-0.012217937380578088,-0.052375007213149125,-0.020373770675775407,0.183435689969267,-0.15938610446888155,-0.12835599164251346,-0.16434513248855837,-0.05140062475229727,-0.1325044904363904,-0.1634715003163526,-0.01650717440464523,0.35964375040615715,-0.008581840043547765,-0.03781412568611555,0.006350421139404898,0.0219949844760668,0.009905959078661729,-0.006256766644904628,-0.07738000946616787,-0.13028768885965702,-0.1731445977629958,-0.010328651772765755,-0.009931515304768048,-0.030242204185331925,-0.14414093762604274,0.05087157103809809,0.009802118579494796,0.01251751595539703,-0.003510366655661286,0.0175445739426784,0.13951974399104636,0.2119819868191695,0.02652216339291628,0.07398973874679533,0.35656265223445066,0.013094195986309409,0.07902120823395169,0.22806646639487177,0.20176087021585257,-0.0012905980817795467,-0.017491170070264336,-0.0005819162599976969,0.003433618294936492,-0.03681940682649059,-0.039892495979283696,-0.04359583977939203,-0.0013917309489663867,-0.11559357020644473,0.06475658890648979,0.05762611233779579,-0.06535181494737527,0.051239957775557225,-0.013256021622731897,0.02477070559715248,010.5-013.5
11.0,12.5,12.5,011.0-014.0,-0.0252455490662486,0.000916532712107764,0.08685220301653444,0.06350464590441621,-0.021815029629527066,0.00819175590837575,-0.02362598334282756,-0.05170836526722174,-0.022064530278250814,0.23655608977378162,-0.15060120952591247,-0.157900871599794,-0.17017221802710208,-0.07608916080954363,-0.14468998428311197,-0.19367787175086446,0.0031865469174183355,0.35498742079450196,0.02128088475679271,0.013691604674463152,0.023458527647890248,0.06511702130683727,-0.011864189339342418,0.008450085462976487,-0.05231290931695491,-0.12886242065168177,-0.1630791180785283,-0.02188291356188188,-0.05025640008530216,-0.07353146324976863,-0.17761586341101804,0.05199253840078768,0.0007034247697410253,-0.035474523515546835,-0.025541014971740838,0.023522815808182267,0.13525033123533037,0.22761359484471805,0.07101027710792478,0.10046000474015691,0.40219602872626825,-0.0008381089837138644,0.02962547596547235,0.20366080667089864,0.15806900214030062,-0.01514650695872275,-0.01477040325595118,-0.01950592231063267,-0.01210254696644355,-0.03167120374592129,-0.06286144423205495,-0.05478165568748302,0.005850090657437847,-0.08317142254910735,0.07134636747591713,0.052077426200397785,-0.04531169914596446,0.06802388611083066,0.005723143989619133,0.0016529672604019714,011.0-014.0
11.5,13.0,13.0,011.5-014.5,-0.0001768797821541897,0.009614332974078417,0.07844621860149531,0.04306326616139719,-0.031361374499670115,-0.028100090736407315,-0.011946525233838797,-0.029175492224802462,-0.0019137869939532316,0.1596658698775038,-0.1443384506679996,-0.12675228988143475,-0.19065051625428758,-0.028761579895893615,-0.1610335306075671,-0.1655707704571297,-0.0085803974020071,0.3473478869654556,-0.00328377019200785,-0.008426494464460392,-0.004684627191406736,0.08783021075396388,-0.00021251111624068602,-0.03386663775229122,-0.03750072096938535,-0.12161988996497002,-0.17801642584614782,-0.0440240049159718,-0.12530748657793953,-0.09626327425272067,-0.13149648416783963,0.005455955246392636,-0.012393073563036339,-0.04702127352634488,-0.06685791197598334,-0.012944621963047574,0.14728883539210122,0.1770699961395937,0.05093167895588521,0.08384882800309565,0.3919274303722033,-0.004949204930339964,0.028677950351071856,0.18775354635591418,0.21702207856287847,-0.023450669485490485,0.01537250612122334,-0.021114472960365834,-0.013924000675795174,-0.023313319779378564,-0.06520071745251783,-0.04891967855402335,0.02012780303544455,-0.08176709215860041,0.07398459321805122,0.06970034080738591,-0.055842336152388115,0.0868355085667003,-0.007119724053653877,0.025752293953817517,011.5-014.5
12.0,13.5,13.5,012.0-015.0,0.014629041774413484,0.0005677395101779376,0.023992756510809402,0.01274086430472978,0.007771362890373988,-0.01773822710462054,-0.004480142338085556,-0.03306329951543199,-0.018247420135053722,0.20307532237320705,-0.1179285179906391,-0.07572604177859733,-0.11897300559887138,-0.05982799065944663,-0.16029565896849615,-0.16431885093279694,-0.009631371323005587,0.29627906069533305,0.005800165514087608,-0.012958470633105639,-0.007080059492168559,0.14220824369796745,-0.014243734210073068,-0.011634064571057838,0.04494323309714319,-0.0701700888039239,-0.21547081923614606,-0.030861613769765758,-0.09349776305004677,-0.06097445156453459,-0.15839922674715765,0.021975409275691755,-0.021501001189871954,-0.027146187324195416,-0.05385918756467258,0.006265122104723888,0.1351563035252087,0.20043322433472016,-9.252322898825373e-05,0.08025633808915784,0.33439671605568144,0.02365463868857113,0.047031548000478846,0.282918018674558,0.14239802407737237,-0.0047408855678281485,0.01593280788321797,0.004443547006674167,-0.03371076126985571,-0.01988469740497394,-0.03083500610205299,-0.02745320910428688,-0.028519648322656847,-0.14768310882512356,0.08958041116796361,0.09952986690535956,-0.07911300337638619,0.07657455072916826,0.010458145967087724,0.05973728121240229,012.0-015.0
12.5,14.0,14.0,012.5-015.5,-0.009015373731278923,-0.009048094698654858,0.005610634125076292,0.05043395335574969,-0.04368872065986328,-0.032874895647224484,-0.02101166596528376,-0.0392192050028982,0.009211273175561339,0.17566882080674512,-0.13747363796714088,-0.0861942620050666,-0.055548322602740806,-0.08034354457875612,-0.08022859683652907,-0.1244844977178484,-0.016120832147774607,0.34934513591906685,-0.00110476274408009,-0.017968728989628566,0.01870110098440913,0.2236557566844604,0.0059108012329503285,-0.01348083598440523,0.04914642107468541,-0.13602465339974618,-0.19692709462027747,0.003123156212100538,-0.08751892697667957,-0.06418803927015655,-0.17164711130123475,0.044644011912086445,-0.03871722675852237,-0.07125783306459416,-0.03148831722404848,-0.007870075487027737,0.09411340280878212,0.17470679748877865,0.017107274201032786,0.0747215409612871,0.26578359482817937,-0.01330665332503546,0.01752264471373075,0.2835324444724296,0.19155129702262638,0.0002571984327976502,-0.0017826461570853741,-0.022208208740692518,-0.0027518684009286915,-0.03350965824475573,-0.05214264765027776,-0.021667542853219535,0.018111793096704087,-0.07041122013242561,0.09629381656814527,0.07620582452434417,-0.04742333586158673,0.07482091531100674,-0.010503162354141402,0.022368392114304587,012.5-015.5
13.0,14.5,14.5,013.0-016.0,-0.002786937749274497,-0.004976781063205483,0.004645897114590944,0.04298740510018698,0.032143913047356414,-9.82284626004601e-05,-0.009701015460229587,-0.021211350411440587,-0.012323061263648126,0.12644065008748923,-0.12256495857319746,0.05926660022642663,0.1244265882341297,-0.09143577720483291,-0.0534372830793776,-0.07841263203724907,-0.02586641331629412,0.33073122860270204,-0.013359324074885975,-0.012648003367626106,-0.005730806167562047,0.37860401141396693,-0.008746749231895576,-0.037574507614905835,0.06368121550075345,-0.13605363745973043,-0.18243689511083527,-0.004303264876951565,-0.12471607670126109,-0.12571140922783905,-0.14412982867977212,0.00010448409203054043,-0.01855960424920816,-0.08775437055373643,-0.057661539802335966,-0.021522077305823617,0.04132032578484578,0.12921092148316646,-0.02217864254610529,0.0729191088877915,0.1598780996005817,0.031036287121785612,-0.003095157558012806,0.2894156224886529,0.18217468857082447,-0.0008317917625142858,-0.0052215992410607984,-0.010086841564167408,-0.028942825972245505,-0.0067628235699079865,-0.01076101091941328,-0.0005583618273016651,-0.012918986646152129,-0.07410568202920836,0.08487795908224291,0.07847428007950816,-0.03815226360555563,0.07344296874383285,0.01488264401187341,0.0369337511980665,013.0-016.0
13.5,15.0,15.0,013.5-016.5,-0.01744626253533948,-0.01611112277661545,-0.02455745332260008,0.03764418632631907,0.05288260381953894,-0.010292293549621244,0.002582865574374699,-0.013871771740649602,0.005292098981088188,0.06147039272185218,-0.07467920416215579,0.12199630460851217,0.26396684629279044,-0.08153186498778078,-0.022055723507826308,-0.04569754304047412,-0.009584188592044933,0.33901828888965285,0.014094130358937685,-0.0014990055216578377,-0.00922344354075654,0.36764333496561513,-0.00298774564763276,-0.04262784302708589,0.15625440812996755,-0.14563063345395919,-0.15315601316283436,-0.0024453418905240622,-0.12101513653209921,-0.11585613163175178,-0.0821155885031399,-0.029014984345077925,-0.023950698364520986,-0.11847141413588701,-0.03000806879302603,0.014084703634910779,0.02596346789985595,0.041606811688574975,-0.042082961591510176,0.06673341663414238,0.11372126424832348,0.024293748555695115,-0.0016579700770352345,0.18158810168321698,0.17705881579770108,-0.01153102254776692,0.010922444559982925,-0.031547013770020074,-0.01769248172324348,0.0016802175724992502,-0.001161138501408175,-0.01786778268313905,0.011256221026384853,-0.08190444450524792,0.037827361568530324,0.07344058950092425,-0.010269698407786985,0.07446950254752592,-0.00944859436666362,0.018501496723980878,013.5-016.5
14.0,15.5,15.5,014.0-017.0,-0.007329071405529024,-0.0177248332588692,0.0028994006259736127,0.034906586622517506,0.0013701901883203646,-0.0349173363444127,-0.012981537416556178,-0.03928139657283644,0.016342910417238548,0.047172891128928994,-0.08483962175427077,0.1411228856186364,0.2701179050885534,-0.06701056764722439,-0.028023705956937723,-0.005785515985817077,-0.018086039543681754,0.28707760520553854,-0.008712383219132412,-0.026050238643370638,0.00027414202172680916,0.34762264020973793,0.014877067743053304,0.014048146970717044,0.1273834724133015,-0.12577126868622146,-0.1286241041729247,-0.00684676027449034,-0.11094645384158831,-0.10190218181060075,-0.13935535245140523,0.0003064898313577767,-0.0432664838261426,-0.11254415162091148,-0.07652355803894278,0.04336585609189974,0.05112059285922152,0.07104805721970614,-0.0611966208976483,0.08706165968757665,0.08957768312113558,0.002255602305770025,0.002370361293544787,0.2328941985315649,0.2083076376416961,-0.0078023080053357405,-0.029645963538612534,0.0178030626143729,-0.0070476719517901945,-0.028273324959849,-0.05303704576746065,0.005838050069339096,-0.006727499586646627,-0.07413817637208461,0.03799233411938094,0.04283262279163007,-0.02378023698691441,0.06276566028161577,0.0011173281325024859,0.01552981544063848,014.0-017.0
14.5,16.0,16.0,014.5-017.5,-0.010959684423123377,-0.002186472941461887,-0.04261400057441402,0.009315884237586735,-0.024130063871049497,-0.03722725480275804,-0.03740655952704213,-0.05309118508328725,-0.027426752253602818,0.08347484410852045,-0.05970974652351962,0.19764853762796616,0.34214175778815303,-0.11969276280191446,0.0014639170095308606,-0.07262455738198409,-0.011719510492471722,0.2138427680188077,-0.0209119483081625,-0.0228987551269481,-0.014215000461084608,0.3034946912165977,-0.01549576320685726,0.016118344840288335,0.16434844046764122,-0.13135956424844164,-0.10349725834862501,-0.026215362974360903,-0.09910871983693363,-0.11420348686606228,-0.0922938534908424,-0.006889212464551913,-0.03438913177977917,-0.06131667451941978,-0.0893509664421131,0.029180811365020046,0.014463436231959042,0.08547947028561458,-0.09530620388846955,0.11658689857174263,0.09911969626098147,-0.009381960295591624,0.028086329249825667,0.22795837904450147,0.18820428114799842,-0.009177974693466229,0.0021631135464912636,-0.021657696704994647,-0.018302085231870595,-0.04402404627295579,-0.10039326942903228,-0.02797676568337729,0.008726746060797966,-0.09354539522039489,0.112767279159847,0.12749597457583958,-0.014413472739918122,0.08333980103883738,0.018691415719349284,0.03270526073526761,014.5-017.5
15.0,16.5,16.5,015.0-018.0,-0.007433279854508044,-0.012947408321610789,0.0007343825189052878,0.0645546239612833,-0.07728308826090141,-0.0444424366206058,-0.04062660525196939,-0.0855501316193148,-0.01084100564412834,0.14515445085019282,-0.002464743351960988,0.12920804190347518,0.18659324403826663,-0.11406727171454586,-0.01799050636295042,-0.07305418681806244,-0.025917348847221557,0.1131562000204059,0.00304340794326947,-0.03638373011468372,-0.010230165392377647,0.32536968824202045,-0.008242020062133924,0.035289607263323204,0.2349982441238774,-0.1157138141496976,-0.08318361646492331,-0.037930349681981626,-0.1256470348856602,-0.13196748674163591,-0.07010968006648494,-0.023911136958284986,-0.039157978836409084,-0.08422008431551,-0.050256856814248976,0.04458641723951011,0.042161627573321085,0.1523001493374639,-0.029509059698685548,0.12368855342132284,0.12906344222843733,0.01467082016504678,0.012636688557927187,0.13446817458607105,0.14979656860656404,-0.01175512329651238,-0.022338677740185445,0.0023550731693857195,-0.003067163034390517,-0.04660014522626905,-0.12413337842373363,-0.012548481622884541,0.02169836026829712,-0.11399643549870504,0.14731410985423476,0.16944802323730138,-0.05588584588426505,0.13377996896175814,0.01821021518058028,0.031038395145683455,015.0-018.0
15.5,17.0,17.0,015.5-018.5,0.0292314194434571,-0.0015399288761795533,0.016372759044467517,0.08471822955768514,-0.11301984979627405,0.03803038194659026,0.03395972009652349,0.03135017030622857,-0.005050685671400069,0.18013687303927192,0.015759167271150593,-0.03500225304249021,0.11717753437890319,-0.18240770820485744,-0.024784422599107864,-0.10498942252469501,-0.022639568227769892,-0.0016075957943554524,0.007245856643956918,-0.02126208963426433,-0.001829871952636891,0.29516393317911743,-0.015759026861783723,0.05290045830833494,0.1575540835287817,-0.06711006122364137,-0.09487106022513665,-0.007789181171343611,-0.0839762471369636,-0.09728950238454463,-0.09810003518342914,-0.03523432660318389,-0.0761434002125772,-0.06419047908399879,-0.03878084956030001,0.023870002202759918,0.09408057970143466,0.19885115808241424,0.038213749271327244,0.12180870613464177,0.23416972252075632,-0.016070056340172032,0.014177020681838156,0.0917387956679583,0.04715064453681949,-0.01220821396367803,-0.013025497589076902,-0.013011491781531692,-0.01755165696049995,0.019021164352780055,-0.004639286574870969,-0.01690107068179153,0.012165698657803956,-0.12471767656764483,0.21085733086707492,0.21639591365818905,-0.10294216632754066,0.16304633125918347,-0.006868464409918344,0.08070239585824304,015.5-018.5
16.0,17.5,17.5,016.0-019.0,0.024038920831277587,-6.932030836236206e-05,0.03299661338149927,0.06823714688517112,-0.10881189165841533,0.10698604519717797,0.07350520154075806,0.16573139155763536,-0.03173030263589366,0.20302967519607013,-0.04207305193058559,-0.14504610405027982,-0.03992739127588158,-0.1581264793958589,-0.0066453201291167665,-0.07675701998394961,-0.014310417859688904,0.012967924950123461,-0.006388499020908118,0.0020172866179647723,-0.025299507853350285,0.23333994504011715,-0.0012101658066164525,0.022016593177074273,0.13251443775322755,-0.05866105662586888,-0.09891390637175387,-0.004228572745843879,-0.06624925297564821,-0.05418991570843996,-0.1078873633960676,-0.05135142684049517,-0.03826855162931245,-0.047705499973747796,-0.05571269230846064,0.008673125022312296,0.044250598564449885,0.19511266399653737,0.10695214933767241,0.08512985997924737,0.312715446031312,0.020275891087114573,-0.030389103918508624,-0.005391031659914706,0.013689422002061838,-0.02537527017301395,-0.020730278500068266,-0.012110977603397464,-0.0004912083780438276,0.0940285934539052,0.1016545319639881,-0.035145572145022105,0.0463338421563086,-0.16597485526291242,0.21164441303833303,0.20728377425225766,-0.07596378101913095,0.17042881739052268,0.003265345945129159,0.0925601243624751,016.0-019.0
16.5,18.0,18.0,016.5-019.5,0.009033020504257507,-0.005579353210832004,0.0611172895177045,0.060413678229668664,-0.09094052215839118,0.1163140394922154,0.07002247401246596,0.308247543222264,-0.0005200564968118974,0.08524255231104856,-0.027632070459615774,-0.11694426762297898,-0.08720611562744558,-0.1462953801028216,-0.028655679900290536,-0.0876790283494278,-0.005450930053110254,-0.04654705080076605,-0.007092276972673574,-0.01063338739648261,-0.0012586809139936608,0.1695068535613947,-0.00519489150062728,-0.021339796843572748,0.12701283934733767,-0.036497681443657316,-0.10819203242239343,-0.060599041734539685,-0.050718299919517394,-0.05694061999657219,-0.08096550947140391,-0.04144252771459923,-0.021410232938636867,-0.05667794787828946,-0.04707424664638455,-0.04111500099572823,-0.010570317547265262,0.10044064739531415,0.0969175449512685,-0.025755458993867,0.28183926425515293,0.004658954315853336,-0.018654526248307098,-0.03944486396116051,-0.011218877187590291,-0.02090014951735527,-0.026001145097939327,-0.030113124211032665,-0.02207412436652388,0.1044719127132722,0.16295455388548472,-0.0185386903904007,0.043703717414293956,-0.18212201281949714,0.2702886646701409,0.26302430108984365,-0.03276285921262274,0.23149971056000945,0.006419950202672368,0.08731110877961604,016.5-019.5
17.0,18.5,18.5,017.0-020.0,0.020006945854876404,0.0022785479590750916,-0.009017538149297595,0.007835128411018983,-0.09378881073188414,0.11194492453966093,0.11339983843643359,0.42894220985363607,0.02909910507726232,-0.03150307419837686,-0.08157492357278634,-0.06917333060502576,-0.09214968411668713,-0.09023266711915708,-0.05234251295020463,-0.07214924012327133,-0.004761687413492207,-0.03679908209578965,0.0007422978001182505,-0.019362256054738115,0.007363292213648362,0.1477452371730658,-0.013505867388017576,-0.1032159470497204,0.07998571142995972,-0.06937685397253467,-0.06946567534540206,0.007661712689953071,-0.09275498049691662,-0.06466741815847342,-0.05880781571977077,-0.03104599228855468,-0.03938196412451638,-0.04822472199390845,-0.03602704130002469,-0.07752165209675303,-0.07125670187604956,-0.02265298977054022,0.13782377234225981,-0.09104668162159764,0.2536334723026311,-0.01249918839527678,-0.026344351784593385,-0.06958861231099757,-0.0050490093542371085,-0.009355481670280271,0.00162112010606727,-0.04888637629151771,0.00395143254861054,0.11571678330875174,0.31170518418511084,0.017140938908083103,0.03600563678781696,-0.17016508547006431,0.16864790652340114,0.1906428805654873,0.05465471522610496,0.2132547385567654,-0.0038306090773563444,0.03252552990990806,017.0-020.0
17.5,19.0,19.0,017.5-020.5,0.029784116913002184,-0.010407296141613447,0.03454353197703113,-0.02362964614452617,-0.1150854176183813,0.09972691065103098,0.10601940919650807,0.40273917042328733,0.11147260489824372,-0.03605363008196922,-0.044845696209545656,0.02204107758803252,-0.06439487138777517,-0.031550247059322425,-0.02133286570832394,-0.049211234507406824,-0.022119007107503776,0.08924615625889641,-0.00192375486570725,-0.033958162696343996,0.03598958204968039,0.1302099975987823,0.0017167471481006522,-0.16612893105679172,-0.003362789553524125,-0.09489162548674153,-0.042677552107210484,-0.06646278076110944,-0.11723315628177484,-0.12640978747819834,-0.026375451938057633,-0.07450413661456996,-0.05689820139329072,-0.10456224134257537,-0.05465529378423644,-0.10629172502815237,-0.038123200566723296,-0.06583773781388416,0.06381748993449964,-0.15102002495308367,0.1907397354045348,0.0045019285630013,-0.0956751737503732,-0.08574217010577348,0.1281227031441185,-0.008820002601395076,0.0039229575133827264,-0.02468641199897021,-0.009154640750910662,0.09515715964100693,0.31892713838846787,0.07538171152803856,0.011910795898525417,-0.08951738924312032,0.08309825398676642,0.09973608448302282,0.15131393422382464,0.20393430352392275,0.0013975727918546191,-0.026344002630738036,017.5-020.5
18.0,19.5,19.5,018.0-021.0,0.01522731244197201,-0.008640541073049313,-0.033521554297362935,-0.0772873903094036,-0.12970427282370262,0.10234074638865223,0.06208171501085517,0.21095600732474526,0.10387199956809998,-0.09699022054381622,0.0034172226801187306,0.16801410919532192,0.02157842738132235,-0.01068945313644957,0.07329439298562455,0.03401954923258909,-0.0023302950502608047,0.1896260770084913,0.001978796297704896,0.0042505120733599576,-0.0012288684337544385,0.051220940171301826,0.01798896598573588,-0.1064285710597043,0.04814914911608,-0.11076428944178689,-0.04138180794774684,-0.17073564560691237,-0.1315871083801404,-0.13839559160535447,0.018705453427126827,-0.11440104515736212,-0.0860617670923586,-0.1298878639216005,-0.004935118489451998,-0.14394778063600006,-0.051640782048944484,-0.09374359142159987,-0.021859228662022626,-0.1519332162331933,0.0776481785927583,0.012616181111292589,-0.11502405750223106,-0.08474283759626176,0.17976716723028527,0.010969268007361144,-0.014024891542208422,-0.017559366793841576,-0.017146978237839502,0.08329877141192017,0.2500994173297383,0.1349922235276274,-0.002243116291222551,-0.025615832238871546,0.006980618946056862,0.012011395826827274,0.2776091016344527,0.10305780405999829,0.0003912705879367875,-0.059130253538953854,018.0-021.0
18.5,20.0,20.0,018.5-021.5,0.0024341632981553694,-0.007413142197217637,-0.0059961766373857,-0.03871434022003237,-0.20120850711140717,0.033024665227657256,0.04669603756578087,0.19404403804831102,0.11606725746276511,-0.038038295435051855,0.02127115509124013,0.22980889010833613,0.0716071964434412,0.053655357502190526,0.08669256315448168,0.05663607220904292,0.0005528332346739662,0.12794378572035803,0.014630788136924146,-0.00026268602633602243,-0.01946336132107457,0.017453520218791867,0.0039245519382552696,-0.10537284023830425,0.029615638346741986,-0.10485097786610918,0.002927128335645038,-0.20203404455876264,-0.13876802176577172,-0.13351066706076506,0.02224020275797559,-0.1163761471444896,-0.06671592294985645,-0.14814841809387796,-0.0416197088638935,-0.12625863805892595,-0.0782306245501061,-0.036495153121086865,-0.08123161533933383,-0.11400000622553354,0.017249582201065858,-0.006503759663454645,-0.14068565899864685,-0.11019998336387556,0.15736512100179068,0.010195113216713441,-0.0008359435685200806,-0.01932585779951945,0.01938991285247074,0.06378400867169016,0.20174085022522575,0.15195126026439246,0.0029664667943676577,0.007685248986281662,-0.0198729984512448,-0.024395332305302286,0.2901047569479199,0.07229526708751279,-0.017724600229573496,-0.03645477494377149,018.5-021.5
19.0,20.5,20.5,019.0-022.0,-0.0068064408835213945,-0.018823570315840994,-0.02500897014112176,-0.0279348828397908,-0.17913009396398402,0.07157213393709884,0.08671224098903034,0.25048171643299216,0.14332404901649307,-0.06991567568935611,0.03467806701254481,0.21199038078187224,0.1696639064584225,-0.04687336852552445,0.10409560966680048,0.0538769407770245,0.004932760412867492,0.00869325373254651,-0.020921622905476077,-0.004125789160540079,0.014784625156038685,-0.019631315994016064,-0.0018039199591852744,-0.02097163669736103,0.010558362814320725,-0.06687286971475997,0.01678006058703506,-0.15997079755629884,-0.11951996684359739,-0.12650759693195146,0.03338917724706562,-0.13550543138470703,-0.0638946804568889,-0.13275010444966343,-0.058671393585991015,-0.06562190403943906,-0.11742524569164818,-0.06278097645769962,-0.03274579093780187,-0.06380278525804627,-0.017551340518714473,0.008278285876497414,-0.18239841977906174,-0.10575992967727336,0.1019639015655131,-0.003947535631585819,0.005525234274512185,0.016149187795348074,-0.005216394044843001,0.04663929787559836,0.23312722938294772,0.14678577513924068,0.009632686661596897,0.04596226545749872,-0.0023593837649926847,-0.0023732439272139676,0.3267917681582801,0.056954433569450354,-0.0063641132214250044,-0.04232385265936037,019.0-022.0
19.5,21.0,21.0,019.5-022.5,0.007861223005856182,0.027549446881170503,-0.01644108518037322,-0.021831655735425205,-0.18291103872989506,0.15347560745652913,0.1249380604028878,0.285967721679159,0.10318158058147273,-0.05303349411863823,0.03285301093845035,0.2072073671559701,0.1263450078869414,-0.027649306357123836,0.08693362614392057,0.024683766337388464,-0.016511360667669575,0.008305317381460817,0.025866708893872208,0.00658038152568633,-0.00535996528789204,-0.05550797074935255,-0.002314811503831637,-0.04184283648257313,-0.005398182298385344,-0.08815785401222653,0.05905398654033756,-0.17882490387821862,-0.12943774254347445,-0.13309639334973633,0.0033710108374218283,-0.11850621786506314,-0.013412373834127096,-0.15889854400244016,-0.07505519793774208,-0.004206236293744547,-0.15321199065033947,-0.0544563393044286,-0.046884186123867494,-0.01096115328106614,-0.057379014384575364,-0.019699160709522833,-0.1959693466199263,-0.1260345360004396,0.06137119723832928,-0.004658070267855255,-0.02380077198801894,0.01218610253023822,-0.03308250322229194,0.14277202907300574,0.28890137189694237,0.11209870951561897,0.008633646167100955,0.008604647383960736,0.0003352611334864625,-0.016687036419131444,0.28709319228881125,0.015985056209182988,0.011054276072471536,-0.06293074424246559,019.5-022.5
20.0,21.5,21.5,020.0-023.0,-0.010895247290491803,0.012127344944368242,-0.023790694712652827,0.042219472192759636,-0.2129493157466906,0.14852077870762231,0.16924890386959637,0.3366775354500659,0.08944989079449801,-0.022258806580640323,0.03797040608395858,0.21252867236637693,0.059310830957774584,-0.05074390886300219,0.07652270164659945,0.019977234649927112,0.0026185810929971512,-0.035193103484777916,-1.816050729797162e-05,-0.0037505596140589297,-0.02839230961363324,-0.043972793510180644,-0.00722019528734182,-0.04863831955794193,-0.040402729309785106,-0.03618833028743943,0.06669836268817254,-0.19629941443744406,-0.13719432104777207,-0.15102152889684822,0.01821217876988129,-0.1275045630437401,-0.05761502238873175,-0.14042625994229557,-0.07071899482506365,0.028980400936394677,-0.15988421120370225,-0.029477381863632822,0.009168685031486067,0.011664995389655675,0.022396101021960955,-0.04146083630902499,-0.21870000367429263,-0.0689506287632629,-0.05377492966809452,0.0007963256500386558,-0.012438491656417704,0.004905609500508754,0.016784417385157825,0.13796533072516803,0.30334917528400407,0.10035190336872656,0.012832184969557155,0.013904730940855113,-0.0028580328508196564,-0.016951014834965424,0.2399988043021625,0.05320985479425343,-0.004694100972704052,-0.052197816633720064,020.0-023.0
20.5,22.0,22.0,020.5-023.5,0.025252543573426166,0.002909994477406321,0.01947773818687141,0.07770005888577723,-0.12853755963528887,0.16266048921627785,0.1512201884835723,0.341708939149006,0.06677259587679914,-0.024446700321229052,0.038989986865542975,0.2167478652350879,0.07368108440410977,0.016717984926563133,0.08672883233475707,0.05453828922407251,0.0031509665246434427,-0.047512674872160134,0.011742626263775436,0.013898291297812938,0.007399843208465169,-0.11238167263559423,-0.0047405537695676975,-0.02178348289194583,-0.00531412614432582,-0.019177645843931432,0.03790908786832773,-0.21981112977626968,-0.16821661193452248,-0.15530904737178994,0.029730512025951488,-0.1297188465827183,-0.03609409550159887,-0.14938298916418072,-0.04053467834068848,0.04955360240598886,-0.1614498135136225,-0.000745552894986153,0.00626978378020343,0.0666361212342718,0.011867371610197278,-0.022239991773874274,-0.19596838505439623,-0.07599116514034016,-0.10324339905826649,0.0012613930543341142,0.0279976406425065,0.013417657310548335,-0.02406364958896616,0.17518886565251296,0.30469755845609775,0.0718475250129665,0.025131234962122505,0.0004883636934807767,-0.03898294771499808,-0.0023315815464898136,0.17482942019958791,0.01036467436621538,-0.012161003130160662,-0.017948250496029328,020.5-023.5
21.0,22.5,22.5,021.0-000.0,0.006773995893057277,-0.024500486652648326,-0.0417996457092606,0.044569005642145096,-0.14157650223290907,0.2009139343617799,0.19857266579460944,0.33695539033112937,0.10578480740235752,0.028251589624546943,0.051112018349031195,0.20654662169017865,0.057444047982981666,0.03590401773872679,0.06945993427565683,0.02831287301154246,-0.0038829431999021927,-0.03314134103897219,-0.0075312495934318074,0.014592860247097966,0.022773260755449515,-0.06713661268197235,-0.011236027603134998,-0.01786778616921847,-0.0034470151885233487,-0.011586478124329051,0.04497836398051747,-0.19779474733075142,-0.1627200680167392,-0.17647798738991008,0.03423216773915086,-0.16335009194069222,-0.05646650253486559,-0.18321179425559592,-0.052945938966396745,0.07859450217594102,-0.1385037203216114,0.015038074896539287,0.04900065675307992,0.07059638673612044,0.06904140657440773,-0.03285800947895146,-0.2057846524834312,-0.07942101326635607,-0.08944978333058849,0.0004193333676207299,0.002195726484857617,-0.0073082271460364655,-0.00719133742158906,0.20602423041531714,0.3134508999630027,0.038783360525191796,0.02234053285698286,-0.034031755154474645,-0.03165369966000218,-0.018237544841896425,0.15246478536912855,-0.0011705521906006401,-0.008474801140485844,-0.04024114141343829,021.0-000.0
21.5,23.0,23.0,021.5-000.5,0.0030896124437194226,-0.01806621630415026,0.008378229980361203,0.0631154072835212,-0.16422787335641403,0.20375568801947672,0.22631749160527068,0.32332090176033,0.12727432368833397,0.0381750159123638,0.019621318398996716,0.15507200383771813,0.03835407105352735,0.04953431510375121,0.047246561828878035,0.010894216174419494,0.007237580343201889,-0.03653136561293458,-0.003565595498832351,-0.02364182179841883,0.028274014729302095,-0.07135263231143173,0.016044011226265708,0.008820202064962378,-0.006386900737757081,-0.024339621316345258,0.03408124139916288,-0.19515204125020433,-0.15836040240961127,-0.15437643254622674,0.014391883330539841,-0.133326917063588,-0.06450503319194766,-0.19454366335238235,-0.05296719170151089,0.1039626841329116,-0.10696536874813888,0.028461045951003922,0.05471472066215967,0.10566775361594621,0.06121635835931398,0.004284425994357583,-0.2063379705732494,-0.03604955867072431,-0.12598413764460561,0.0015688100435749003,0.03334837950069029,0.020813933412905716,0.001465687802697357,0.19714995260220172,0.30512055915551445,0.030888368843440414,0.046612660347866555,0.004305231725781764,-0.03148460338321756,-0.035756698125672455,0.15054231423451878,-0.0030439606610312216,-0.01689090011483814,-0.03868725642585989,021.5-000.5
22.0,23.5,23.5,022.0-001.0,0.024789553347696166,0.0066510188690853825,-0.005429041710377728,0.10237501951463503,-0.1447990822121003,0.21065110144473678,0.22102813647997627,0.3474217219695562,0.10934624488090935,0.030736939376174024,0.046993311670582086,0.17241948101884394,0.017675633774764325,0.03041396823493011,0.041481268992603106,-0.01781266769750079,-0.005766350328692303,0.016177128012906196,0.004270406088804644,0.0035443901803181776,0.019141353339862888,-0.09051226079274254,0.009591684198709387,0.015406074309946042,-0.00974401276065568,0.010207025821670958,0.03229308169325437,-0.1849429452192374,-0.1650162058234461,-0.14998374656014815,0.03177132449735406,-0.10918456733944558,-0.05690588165738786,-0.1811495625436101,-0.06040237231518159,0.09621000864207431,-0.09507186629525109,0.05379301789394351,0.08730414528645486,0.112300819007334,0.08434014286327794,0.007825482216238073,-0.20018602438742308,-0.03779515283606892,-0.11557042434806561,-0.004281859155401626,-0.007040253652292849,0.0060945056822967894,0.007410325644722065,0.23071779697022973,0.27314002281555533,0.040688261735639115,0.044176504581690354,-0.041903515420991196,-0.03686107600308917,-0.05175157589657857,0.13214655438717052,-0.023843310462125723,-0.010587326055628177,-0.03510255546489715,022.0-001.0
22.5,24.0,0.0,022.5-001.5,0.029370540287409423,0.01921162289583683,-0.023777518642609956,0.06081825522980479,-0.14288369406458737,0.20066876937578526,0.20431628031207386,0.35343474662846835,0.08255992146188243,0.0742098336170712,0.06810673863820571,0.1336402531190288,-0.0008378911628236183,0.02641094708163006,0.06238118558809104,-0.00865121843453697,0.011782568372294142,0.024227925646561465,-0.008111884919626501,0.007519898405252401,0.015302166882615601,-0.09670095684101206,0.002909370046186141,0.028092872064186664,0.010905541425448263,0.032798162864870015,0.062418986490780946,-0.16312612493751816,-0.1359753168703734,-0.1524216910849593,0.06705024703354227,-0.12939620251073056,-0.055229523023615563,-0.16036481535932653,-0.056776816032075884,0.09145293842172972,-0.06726111565156945,0.06395508535771514,0.08930195980578236,0.06442328922264497,0.10099642561396949,-0.006783300058953975,-0.16703984796369087,-0.04695885462254891,-0.14341057185554354,0.00968116891036681,0.03303672607916071,0.003669698818823279,0.016860190853199196,0.2199794414883239,0.2913295454696304,0.024102361603640578,0.06082547816306579,-0.0614493655076601,-0.05163002607342062,-0.05766948399696525,0.08051152465213605,-0.03164493026211319,0.013885588626064345,-0.009873558549324875,022.5-001.5
23.0,24.5,0.5,023.0-002.0,0.012189384740738293,0.02830639010719658,-0.05019782449863784,0.07332133617777102,-0.1393748317101788,0.2236323018980952,0.21375196464765003,0.3722613483232978,0.06314796879586469,0.018705636471912455,0.03445937302812475,0.24368508722653137,0.043141901876446946,0.021007981928158715,0.057208331678844496,0.018634835222355133,-0.008451403616628928,0.018533705700496134,-0.006058828969451095,-0.00600724253090775,-0.0076111192882414806,-0.07979865990417193,0.02013534445110198,-0.037657442594983256,-0.04027285839969037,0.0205661459632434,0.06747961422762505,-0.1480850650248818,-0.12144044886474639,-0.11062561280469545,0.0275993332654641,-0.12132531679989493,-0.03552914262099419,-0.12828239832759752,-0.05526998035154378,0.07237722482395993,-0.0801874593261014,0.05573239288464011,0.06196558057309317,0.08336839464389874,0.08966185475260909,-0.01103939979672638,-0.1284327800240698,-0.04256283832223638,-0.1276218595917564,0.0037990473306219095,-0.006481485470501665,0.0009193874012941321,-0.0025878927920750653,0.22380487687013756,0.31574193327195943,0.015104912898623127,0.05701934035535559,-0.08310320990901252,-0.03909293171109908,-0.05185354433032496,0.1048090637099064,-0.02188883672433414,0.014426267256401672,-0.005519660949241163,023.0-002.0
23.5,25.0,1.0,023.5-002.5,0.035073954428820886,0.013057892513210042,-0.049020751629838405,0.07771881872424949,-0.13937204198488515,0.21743762959050042,0.22571284073818154,0.3448390370819777,0.0387763014839372,-0.03944510463784811,0.10462341136871854,0.30023408754766756,0.17724131311045024,-0.05438318098073836,0.06921042471254038,0.03270422920095953,0.0027240089192069952,0.040760676704188974,0.00921151784769879,0.0006865146661097078,0.005952746339649794,-0.027921347562676405,0.000454686904020248,-0.0235246213502711,-0.0782913822859225,-0.0007956625348792119,0.051634327025961,-0.1300529978793861,-0.07924343952000382,-0.10811167924919207,0.032270528728179475,-0.06482719765904535,-0.058892146832532605,-0.1346793427542638,-0.027843810114729146,0.08307623046703615,-0.07302013189924002,-0.02320598093330087,0.024803618161325574,0.06843266534195692,0.03230876966492642,-0.016042318744643076,-0.14367043019518724,-0.04284427429359385,-0.11730159467106291,0.005278377123812949,0.01120057778884321,-0.0116878619979289,0.009801402535189071,0.19664722682668698,0.2968392513456653,0.0006455435054451984,0.06172090503668382,-0.09729011542550546,-0.04750668608724111,-0.04908641538999623,0.08332615940462523,-0.02226179781154831,0.019625196761097814,-0.01626146202183244,023.5-002.5
